25 64
24 0.14832136 -0.009178848 -0.035047766 0.13809861 0.22098368 0.05626444 0.0680149 0.07269783 -0.16311593 -0.013225351 -0.03214884 -0.0630988 -0.17489634 -0.050457504 0.040279385 -0.046865538 -0.061703447 0.018085863 0.050472926 -0.059829496 -0.044204596 0.1035054 0.069757864 0.16963126 -0.025575273 0.039818607 -0.1066734 -0.15793015 0.059648953 0.09314396 -0.008801995 0.077510685 1.8130017e-05 0.015172167 0.017346496 0.010154182 0.037930496 -0.017343862 0.043258075 -0.032874037 0.012946277 -0.009579162 -0.018308809 -0.01167131 -0.01776643 -0.013659198 -0.026700513 -0.021605453 -0.0291298 -0.002254823 -0.0038079629 0.00048221776 0.027639069 -0.012138561 -0.028331006 -0.015754497 -0.05351825 -0.027288107 0.093999185 -0.04458601 -0.09263566 0.03211254 -0.035411224 -0.04208755
23 0.15003304 -0.03384834 -0.043845143 0.109899245 0.25585955 0.080337495 0.074196205 0.072664335 -0.16186684 0.0019868927 -0.029095268 -0.074350305 -0.12571892 -0.040807486 0.01716798 -0.05034099 -0.034961913 0.010635707 0.023832714 -0.045587976 -0.020461004 0.065990664 0.060788706 0.14007686 -0.027094772 0.055011857 -0.12176861 -0.21142744 0.09550364 0.100517094 -2.2854756e-06 0.09319358 -0.0025223382 0.010473731 0.0014308494 0.01283409 0.018409444 -0.0073401243 0.014075666 -0.03719772 0.025124146 -0.0130121475 0.025804266 -0.01675355 -0.004300344 -0.014677273 -0.038595248 -0.029090732 -0.009849982 -0.0093718255 0.004469735 -0.013692807 0.018187046 -0.019042829 -0.040430542 0.009657067 -0.05281333 0.0077975197 0.0027334976 -0.04510137 -0.054212846 -0.0144380275 -0.0068648695 0.011100346
16 0.116183385 0.0002509867 -0.06335335 0.15785359 0.15985337 0.03969375 0.084417455 0.06602426 -0.14771296 -0.0014000052 -0.007980023 -0.09314521 -0.07294934 -0.14806543 0.014926507 -0.040054422 -0.093000114 0.020655964 0.10647957 -0.041864667 -0.11382127 0.1477143 0.023807721 0.10147279 -0.028657211 0.027772417 -0.08978733 -0.13877755 0.13458773 0.096003264 0.020799251 0.06411843 0.0021447851 -0.018743156 0.023445796 -0.055569883 0.040606283 0.0344699 -0.030458778 0.0048580016 0.002664718 0.017159136 -0.07107843 0.044989605 -0.0025691935 3.5721125e-05 -0.0076629235 -0.0011981638 -0.011479177 -0.020109734 0.005162016 -0.020468634 0.052662905 -0.048302267 -0.05007906 0.0070501664 0.008313846 -0.024013497 0.03662971 0.011741527 -0.08119196 0.014133947 -0.087527335 -0.015988674
17 0.15716091 -0.023491489 -0.06997735 0.13280545 0.12852314 0.08111792 0.048852704 0.04510007 -0.13893473 -0.01044957 -0.009398428 -0.09587168 -0.04533314 -0.20424391 -0.00801268 -0.051162865 -0.08575644 0.021648219 0.100428894 -0.026175508 -0.08974023 0.06421159 0.021622756 0.08671602 -0.040620055 0.03898115 -0.11576286 -0.15128365 0.14941941 0.10915308 -0.0024160957 0.08294437 0.04307405 -0.021757936 0.009907235 -0.028164124 0.029338963 -0.011283427 0.013143096 0.0077258116 -0.002411765 -0.00038361453 0.0018643154 0.0014344681 -0.041086476 -0.047953732 -0.022173429 -0.0035628963 -0.0063995766 -0.02478867 0.0048052766 -0.023320336 0.058975812 -0.053650957 -0.047420513 0.0046966304 0.024416516 -0.044299968 0.015300975 0.08128992 -0.077127166 -0.009795864 -0.11620198 0.020488985
6 0.13356917 0.003485261 -0.027867304 0.11501635 0.22700061 0.12738127 0.09189002 0.04550567 -0.057466645 -0.016928146 -0.016104437 -0.024945129 -0.12973385 -0.07764145 0.029746335 -0.031781603 -0.09918179 0.030961515 0.08602379 -0.064747475 -0.07119706 0.1643961 0.052094825 0.142041 -0.05905222 0.020212507 -0.11413388 -0.097710334 0.14179242 0.13460594 -0.035537474 0.09599238 0.013346371 -0.009250104 -0.008150379 -0.0063302317 -0.02809428 0.007860569 -0.0059853904 0.039653987 -0.005239626 0.014770739 0.038533222 0.025174558 0.025827132 0.010446703 0.026327692 0.01319551 -0.09802214 -0.023714917 -0.047337353 -0.012214258 -0.014963034 0.015730688 0.034899607 -0.0051408443 -0.023943428 -0.044834442 0.04237215 -0.01880361 -0.022478402 0.038489368 0.005587643 -0.016691279
3 0.115681395 -0.032204017 -0.02931467 0.1028636 0.15693879 0.05961454 0.08468005 0.054922782 -0.12603952 -0.009829614 -0.024477372 -0.06214612 -0.1347401 -0.064282864 0.028412506 -0.03812195 -0.06986306 0.020466434 0.062246647 -0.053718623 -0.050122216 0.09856648 0.055815183 0.13912416 -0.06735392 0.047931947 -0.108511746 -0.22235806 0.17077707 0.10218911 -0.011590592 0.100390285 0.035275538 -0.042159814 0.010043365 -0.057781603 -0.025438776 0.012419126 -0.013247855 0.05027069 0.018773649 0.0037662045 -0.04964174 0.01873989 0.031112663 0.032992333 -0.021289462 -0.023846991 -0.02663715 -0.009099455 -0.0070612063 0.0048552505 0.039245903 -0.03150684 0.015825916 -0.011654358 0.0807215 -0.028124945 -0.046021223 0.08529558 0.018740444 0.0019404605 -0.029849669 -0.03609777
10 0.15776849 -0.007320671 -0.030593432 0.0616653 0.21913877 0.14795162 0.06750849 0.01949665 -0.13495766 -0.008624352 -0.038130112 -0.038340528 -0.19409761 -0.08876363 0.02606495 -0.07246288 -0.06017713 0.018250486 0.05621135 -0.038483605 -0.04940558 0.080696195 0.05418522 0.13584483 -0.06876461 0.026044685 -0.11144521 -0.12032238 0.16859841 0.116636865 -0.026588647 0.08901506 -0.038169775 0.037895247 0.007847952 0.017885244 -0.04378144 0.018775778 -0.0027443455 -0.013773291 -0.013227897 0.0041741314 0.03846672 -0.00012013028 0.006206443 -0.0012874953 0.014555952 0.018226 -0.04155313 -0.016577072 -0.021995705 -0.02352511 -0.042082634 0.025765518 -0.002670352 0.023986874 -0.01180558 -0.013094307 0.013876973 -0.028236473 -0.009166238 0.028012227 0.01859002 -0.016209338
15 0.13134378 0.01641603 -0.061087884 0.13911746 0.09632109 0.04127264 0.054368142 0.03152763 -0.15609665 -0.008762153 -0.012602668 -0.09053172 -0.11218965 -0.19549721 0.014023375 -0.063893594 -0.104239926 0.026464056 0.11368577 -0.042325914 -0.1223354 0.1699309 0.035205536 0.12671207 -0.053744715 0.017138984 -0.08256297 -0.08379723 0.15100056 0.0847639 -0.017564328 0.062266037 0.0059060985 -0.014546542 -0.03773341 0.024074996 -0.04446812 -0.0029348792 -0.028195165 0.054358236 0.001635522 0.01733357 -0.07070944 0.042195246 0.0106514115 0.016707554 -0.00031552537 -0.0061580194 0.0239329 -0.019885836 0.030213168 -0.041546445 0.0411304 -0.048041508 -0.08758491 0.030226061 0.018761592 -0.0043569095 0.0059511373 0.023691267 -0.05296827 0.0037453372 -0.06253765 -0.01224392
0 0.13918713 0.0027554773 -0.06517871 0.1356819 0.16677019 0.069581375 0.09495266 0.054627635 -0.17776655 0.013293929 -0.03157873 -0.055342756 -0.11513904 -0.09719936 0.020562816 -0.0531959 -0.048782524 0.013313438 0.045307443 -0.043683264 -0.019877816 0.03312307 0.04249353 0.102549314 -0.07730861 0.04481749 -0.102677435 -0.21659192 0.17884572 0.100754045 -0.00688545 0.09256962 0.0030435396 -0.018875705 0.0052263043 -0.028279329 -0.027417911 0.010685502 -0.015292929 0.042954788 -0.007579947 0.011463867 -0.093904875 0.024425618 0.021357793 0.042813767 0.0077955364 -0.0034338934 0.039723173 0.013202152 0.017254699 0.017965335 0.019123642 -0.011754015 0.01113263 -0.012340508 0.10681645 -0.02298342 -0.019389486 0.11288561 0.045723286 0.009960329 -0.039382562 -0.029868752
22 0.13649818 0.005007807 -0.013571426 0.08583651 0.24160057 0.18170325 0.014295254 0.031549677 -0.16628097 0.018418262 -0.019711915 -0.085207276 -0.04288136 -0.09917995 -0.030368082 -0.07752888 -0.05037916 0.011639131 0.053335015 -0.032794774 -0.059459873 0.097374864 0.047154035 0.13440065 -0.0248599 0.02319233 -0.0825883 -0.13856702 0.1659484 0.14111184 0.023967508 0.09300665 0.045336008 -0.0354408 -0.025963977 -0.0010796657 0.035688955 -0.0022209438 -0.005069967 0.044224367 0.025941068 -0.0028431963 0.042687807 0.0055165454 0.01334881 -0.0046335543 -0.013017791 -0.006181055 -0.07234125 -0.030945292 -0.02146533 -0.024446754 0.03141849 -0.02995626 -0.04284763 0.0066039357 -0.0107981255 0.04675148 0.024843184 -0.06501747 -0.006859624 0.0029296419 0.018942248 -0.035255406
18 0.12640518 -0.051130917 -0.02443846 0.086300276 0.13098069 0.0035960297 0.029239824 0.047634702 -0.17978111 -0.015547437 -0.015705502 -0.12890667 -0.12398259 -0.14505415 0.016424822 -0.056315236 -0.11365811 0.027432982 0.12746893 -0.04737804 -0.1352756 0.16056885 0.028313573 0.11867427 -2.2183134e-05 0.04735238 -0.13071837 -0.14768945 0.083339915 0.095261335 0.010926529 0.07089255 -0.0106184445 -0.007439265 0.0052436446 -0.033550322 -0.012177864 0.03568431 -0.049901765 0.0021451737 0.012453692 0.013216639 -0.035059463 0.03711525 0.013403883 0.004643906 -0.026508728 -0.016195035 -0.004023133 -0.020740835 0.008949127 -0.037608273 0.012616271 -0.027440887 -0.053140998 0.035709508 -0.02810314 -0.028790759 -0.02041079 -0.01084791 -0.08592812 -0.00362729 -0.060161937 0.020888252
4 0.13871527 -0.06592439 -0.03486485 0.083580755 0.17540918 0.04696518 0.054440744 0.051176637 -0.11628547 -0.036532983 -0.01793686 -0.09389643 -0.15328717 -0.104313836 0.016652072 -0.055369116 -0.035314728 0.013297263 0.02966377 -0.014546039 -0.050304923 0.08065495 0.04239305 0.10448403 -0.057337172 0.05538931 -0.11906703 -0.17942895 0.20204796 0.08325918 -0.059457634 0.11741635 0.044038393 -0.03309839 -0.067919984 0.056904033 -0.06501653 -0.050237324 0.0039100084 0.08224851 0.01692251 -0.0062927864 -0.023221893 -0.0050985627 0.012784538 0.018287014 -0.020832185 -0.026527166 -0.001277027 0.016690351 -0.01201675 0.033584535 -0.008741869 0.023523092 0.046310388 -0.03239217 -0.009015613 -0.059055254 0.026456008 0.04320284 -0.04270314 0.015726006 -0.030519638 0.00097165536
5 0.13426104 0.036108635 -0.043112382 0.13504513 0.19462518 0.087125264 0.099647366 0.041227683 -0.051590845 -0.009546687 -0.015050254 0.017158844 -0.10025505 -0.0721462 0.033836197 -0.020870993 -0.07650649 0.024175854 0.063813366 -0.055757847 -0.06605659 0.15694949 0.060262717 0.15554184 -0.11632776 0.023892391 -0.09885802 -0.14243062 0.21100026 0.10698362 -0.06655499 0.102812484 -0.029372392 0.036156103 -0.022290789 0.071086645 -0.065084785 -0.036823634 0.028401094 -0.0072132945 -0.0044172127 -0.002683525 -0.030576976 -0.0071980176 -0.010134013 0.0012711354 -0.008591785 -0.014483781 0.021037033 0.0109160235 0.023820147 -0.012111666 -0.0057333205 0.0067612096 -0.017543664 0.004531317 -0.034316808 -0.0409597 0.034225933 -0.011205558 -0.07181688 0.03194215 -0.018654555 -0.03561073
14 0.15561731 -0.006422055 -0.07233536 0.11084281 0.07980561 0.07356728 0.050241932 0.02057756 -0.16045421 -0.022668319 -0.023022113 -0.09552033 -0.13783081 -0.2005296 0.014733017 -0.065655895 -0.09787576 0.027413854 0.104512505 -0.038763933 -0.09715916 0.10746144 0.04435016 0.13423595 -0.06467477 0.027121022 -0.10893762 -0.1032212 0.14988281 0.09223251 -0.032167863 0.07369019 0.019240288 -0.0059808316 -0.012947495 0.006525781 -0.04268019 -0.008484016 0.0008867981 0.031344686 -0.013200353 0.008580663 0.00882759 0.012116173 -0.013752628 -0.01938097 0.007515978 0.009110195 -0.0067886645 -0.030681865 -0.00042342095 -0.033869375 0.028201843 -0.03511473 -0.032946866 0.019136263 0.032767713 -0.053509843 -0.017826555 0.097464986 -0.04043084 -0.008151654 -0.07860572 0.031027729
11 0.10669525 -0.031451035 0.011998016 0.033297613 0.23757218 0.10792062 0.021624599 0.032636683 -0.09825942 0.0032668111 -0.013710718 -0.050766915 -0.052947473 -0.019530019 -0.010634967 -0.045079134 -0.050092828 0.01211322 0.05276958 -0.03018971 -0.07640182 0.11621847 0.04443834 0.13089646 -0.050879262 0.051629778 -0.122109056 -0.21764372 0.22493812 0.13452253 -0.010375443 0.12479115 0.0023308038 -0.017137496 -0.035235446 0.01365075 -0.04038075 0.0010697945 -0.04513992 0.04601141 0.03174749 0.0016521881 -0.051730618 0.022662882 0.0270335 0.025715401 -0.052680094 -0.03512071 -0.031118982 -0.0058636586 -0.00016499775 -0.023917597 -0.015329842 0.0062812036 -0.024430124 0.02002998 -0.027435899 -0.0033629593 0.005483382 -0.07749824 -0.060280267 0.03451964 0.007382504 -0.053295374
1 0.046790306 -0.014125363 -0.017042706 0.06915634 0.17011476 0.06079638 0.10608155 0.044824198 -0.11050801 0.015124492 -0.014696632 -0.02747756 -0.08910657 -0.14294872 0.014693913 -0.052807637 -0.09324598 0.028238399 0.08549991 -0.057152916 -0.07354536 0.14773943 0.03785894 0.11566988 -0.10206079 0.037649747 -0.08463897 -0.19091721 0.25243866 0.10249709 -0.03994919 0.108941644 0.0057241917 -0.024963012 -0.021890834 -0.0009917669 -0.04579408 -0.010019076 -0.024374213 0.035974976 0.021985382 -0.004494203 -0.08072228 0.0042440738 0.02298191 0.03734151 -0.034217156 -0.03443561 0.046065696 0.028952772 0.03258978 0.022075068 0.015933838 -0.009017062 0.008429858 -0.0111541 0.048588615 0.034120027 -0.05188994 0.0055436515 0.04341314 -0.00433984 0.025352612 -0.04358132
19 0.15243652 -0.03266604 0.010464116 0.072616845 0.15036783 0.018603697 0.0017560222 0.024271447 -0.13568206 0.0030901737 -0.012514569 -0.059032828 -0.09848249 -0.17229854 0.01656246 -0.05674044 -0.12403189 0.033427287 0.1314001 -0.054055143 -0.09883527 0.1164462 0.010884957 0.07304672 -0.027749714 0.042629108 -0.1587948 -0.13724537 0.11443403 0.15297757 -0.008127896 0.09670683 0.025799118 -0.029494759 -0.03063267 -0.0040085535 -0.040450715 -4.904425e-05 -0.037544526 0.05645752 0.0064643933 0.010573656 -0.046591006 0.027875884 0.006810169 0.0053371727 -0.025535032 -0.019881086 0.036536418 -0.005241362 0.032703135 -0.031452302 0.015380042 -0.02560414 -0.0730076 0.031734426 0.0040092086 -0.005740602 -0.013559588 0.03065134 -0.045771394 -0.016483992 -0.06505618 0.029893063
12 0.10518649 0.0063925246 -0.09630264 0.11389997 0.123822376 0.044490613 0.07787128 0.039778393 -0.18971099 0.009629336 -0.01719053 -0.0964123 -0.0764568 -0.20566924 -0.002630646 -0.072605774 -0.053632278 0.015454155 0.053807132 -0.02737896 -0.059898622 0.09410389 0.036631074 0.104604386 -0.080910094 0.042734507 -0.105609745 -0.16653013 0.22224367 0.0874975 -0.040342677 0.09787577 -0.006037574 0.0061179553 -0.057608526 0.08103527 -0.02965612 -0.03620502 0.0025298118 0.011571231 -0.005690405 -0.0014743597 0.002891518 -0.0074757915 -0.0069678305 -0.0004940561 0.018580968 0.0018271075 0.088051505 0.016318457 0.032174334 0.014426565 0.0057283174 -0.004632254 -0.013573538 -0.0020746973 -0.019978538 0.009005254 -0.024534421 0.037928995 0.0025253694 -0.044423204 -0.01295182 0.076438665
20 0.18808612 -0.057842527 -0.008577252 0.11068348 0.3080274 0.0705189 0.06507881 0.06958681 -0.12006704 -0.013150557 -0.013686308 -0.06715035 -0.12532325 -0.12215521 0.02152993 -0.050980173 -0.07883197 0.022708325 0.07925836 -0.03727113 -0.075057104 0.10733202 0.02216842 0.08208546 -0.0155730955 0.028108926 -0.09140555 -0.08138614 0.07573049 0.08636708 -0.019861069 0.06683447 0.025666447 -0.020354737 -0.013284214 -0.0016247097 -0.000650108 -0.016997086 -0.0062074126 0.023933211 0.009614559 -0.003304121 -0.03756936 0.0017107872 -0.014774026 -0.011964642 -0.035189264 -0.019454941 -0.0038336557 0.00596562 0.0064510233 -0.00058192725 0.009043711 -0.0034001842 -0.017278139 -0.003672454 -0.023519408 -0.00806895 0.039739706 -0.031116536 -0.05340714 0.018154008 -0.02744577 -0.024494708
21 0.20770966 -0.0214193 -0.016604546 0.13348193 0.30858773 0.06344876 0.08114339 0.0620654 -0.10641416 0.0018161978 -0.016595202 -0.014528403 -0.12527627 -0.12396175 0.038300704 -0.041004535 -0.081077695 0.022983408 0.08332608 -0.04032211 -0.051666886 0.060347393 0.014984782 0.062661596 -0.041680306 0.01530676 -0.10542255 -0.06891942 0.09608615 0.12964515 -0.011393813 0.068840794 0.040212505 -0.02393869 -0.0038964313 -0.0035336046 0.047673754 -0.023975534 0.021903217 0.033467773 -0.00707253 -0.0021572006 -0.06062366 -0.000634661 -0.037644584 -0.022424813 -0.01342213 0.0012133232 0.0192718 0.009949845 0.016034082 0.00534024 0.022865247 -0.009140163 -0.054698408 -0.011042485 0.006508782 0.018745378 0.11085676 -0.01698866 -0.034640852 0.02843867 -0.049510434 -0.044681277
9 0.1811127 0.013965176 -0.03537274 0.07024375 0.28838947 0.13969895 0.014765755 0.02118764 -0.14908832 0.026519734 -0.01267481 -0.0568724 0.0028085872 -0.08693557 -0.029187202 -0.059912376 -0.04206825 0.008948111 0.04947113 -0.021639068 -0.06765487 0.090422474 0.03672465 0.11770858 -0.04851499 0.024452835 -0.10775205 -0.109925866 0.17442346 0.13824019 -0.009222812 0.091893665 0.0051550264 -0.0010223472 -0.06625182 0.07728332 -0.01913142 -0.03107895 -0.024039013 0.036326263 0.0045760074 0.001976401 -0.011980703 0.009407304 -0.014362594 -0.0150649715 -0.019281985 -0.0043970165 0.024389425 -0.014767123 0.027621677 -0.05085868 -0.00925423 -0.008878331 -0.091866955 0.044348028 -0.05622347 0.035755586 0.024389852 -0.08306606 -0.053159907 0.0022960543 0.0024146168 0.0049519483
2 0.12250787 -0.070527524 -0.030403338 0.112968 0.21824439 0.047289573 0.10428145 0.06783565 -0.055082124 -0.03652732 -0.0017797344 -0.07654483 -0.13921325 -0.15205027 0.023625191 -0.044241827 -0.05504784 0.016311293 0.058744326 -0.00634242 -0.082840174 0.121856615 -2.8220145e-05 0.024460612 -0.05479144 0.048109338 -0.10879387 -0.1622246 0.23975778 0.083984375 -0.049941707 0.113296635 0.0056409435 -0.023365378 -0.036211893 0.011211866 -0.047955137 0.005571919 -0.030501202 0.061821934 0.009646797 0.010105191 -0.017830364 0.024641953 0.04524139 0.044497695 0.01317257 -0.004976965 -0.023920257 0.025850859 -0.03102069 0.050653964 -0.039205685 0.050493345 0.08973126 -0.03579218 -0.00794531 -0.04593126 0.021218987 0.0032788722 -0.011093133 0.028870454 -0.0008579928 -0.0063484223
13 0.10765933 -0.059417576 -0.005071605 0.016919889 0.18224652 0.09706219 0.024364026 0.031095104 -0.19116098 0.0008608493 -0.02387496 -0.09503988 -0.07782143 -0.20722975 -0.008571513 -0.07278996 -0.15352288 0.047572277 0.14920564 -0.079294555 -0.10468275 0.126429 0.04611629 0.15678394 -0.035652023 0.037277643 -0.109544985 -0.08425104 0.07683335 0.09821024 -0.045943607 0.07827522 0.04174799 -0.030525185 -0.02083293 -0.008280872 -0.054511182 -0.03853938 -0.018800667 0.032497022 -0.004536615 -0.0074349325 -0.015845474 -0.016712343 -0.029393796 -0.027882377 -0.044188272 -0.021863788 0.025658028 0.011097817 0.01091465 0.005325837 -0.0037405281 0.003235311 0.04765041 -0.0057274573 0.013637006 -0.034140427 -0.066194355 0.058138933 0.015963726 -0.017811438 -0.00568174 0.03949593
7 0.10960726 -0.030590298 -0.0057655424 0.08951593 0.23189613 0.0501083 0.049488947 0.060790416 -0.17828242 0.022434864 -0.01709741 -0.06926536 -0.074584365 -0.15712158 0.006606443 -0.06260004 -0.11195182 0.031336125 0.111314 -0.06491537 -0.0745378 0.1075072 0.018899014 0.08521924 -0.01940079 0.041859988 -0.1107833 -0.14024751 0.101989895 0.11729688 -0.0028611652 0.0846779 0.01557292 -0.03501927 -0.014301375 -0.023271505 -0.0007168597 -0.0006965116 -0.040101763 0.040239755 0.0027066513 0.008214504 -0.10110594 0.02428492 0.006478456 0.023976892 -0.021044325 -0.019459572 0.054058194 0.03255299 0.02393994 0.03258035 0.0052784705 0.006366581 0.017239574 -0.020380106 0.018990299 0.01005838 0.009845403 0.008500697 0.017384714 0.0025560015 -0.010732465 -0.0005678702
8 0.16013265 -0.012556809 0.016788607 0.06515004 0.27633637 0.0807716 0.041350473 0.03738078 -0.09019432 0.018340582 -0.017940415 0.00759369 -0.07847763 -0.08267584 0.02613699 -0.03051806 -0.1206353 0.039038435 0.0989959 -0.09256719 -0.03576372 0.119884595 0.041384578 0.11770323 -0.048524562 0.036185566 -0.16719745 -0.12365815 0.061924037 0.17986795 -0.035795342 0.10846123 0.024736766 -0.014954822 -0.020855816 0.0047689094 -0.058526523 -0.024662046 -0.011041303 0.031520013 -0.008132409 0.0036602411 -0.009377033 0.0023533558 -0.006355688 -0.009329397 -0.021101018 -0.016757248 0.014276858 0.0027288587 0.022610098 -0.024070757 -0.0039850664 -0.0024377776 -0.02114499 0.017984934 -0.013724289 -0.029315861 -0.013236041 0.030686522 -0.026047489 -0.005103499 -0.027954532 0.02616272
