27 64
26 0.014755829 -0.09211724 -0.046835974 0.03246513 -0.050608303 0.027001819 0.036440104 -0.017820904 0.04584659 0.028383207 -0.02079811 -0.11517753 0.004847498 -0.0006405586 0.04591613 0.08685688 0.007407745 0.042283617 0.00033670815 -0.04761598 -0.0657977 -0.059246 -0.0381092 -0.027791088 0.02366649 0.06898137 0.05183833 0.011289775 0.01712199 -0.037996836 -0.023432497 0.021960948 -0.0035815898 0.03813797 -0.08029117 0.04590362 0.0076029985 0.015624578 0.08947376 0.0035860871 -0.10152446 -0.070329234 -0.3709472 -0.21180657 -0.221989 0.046059083 0.19676548 -0.17894575 0.051806986 0.035896864 0.10932763 -0.08048028 0.00028222552 0.033228632 0.009941866 0.009800027 -0.08092744 0.14071259 -0.13851564 -0.12810151 -0.1522915 -0.02335422 -0.097499214 0.19517818
25 0.04455117 -0.08412673 -0.018688627 -0.020529905 -0.043750342 0.024564877 0.06364832 -0.028738922 0.060500424 -0.10099233 0.015546008 -0.1291674 -0.04039177 -0.02917122 0.04837123 0.0714651 0.013442691 0.07994639 0.0064327586 -0.086238384 -0.061325874 -0.08064306 -0.02493572 -0.005893478 -0.00977515 0.06661207 0.04355806 -0.017345482 0.031445455 -0.009686502 0.007318898 0.005746453 -0.021055633 0.06069535 -0.087266825 0.06878095 0.022898154 -0.021261375 0.051771387 -0.007371963 -0.118271254 -0.04879333 -0.39734578 -0.19080877 -0.21053833 -0.0047736918 0.15937062 -0.17554803 0.093215816 0.08828993 0.2024744 -0.0832953 -0.042530444 0.028403677 0.016192546 0.016845513 -0.044850487 0.120729014 -0.122884765 -0.112898886 -0.092778735 -0.014994682 -0.074364044 0.10695161
24 0.0064209346 -0.015679229 0.031989396 -0.012200914 0.03148226 -0.053589594 -0.030575924 0.0021615927 0.0035357282 -0.026140269 0.0030012145 -0.036784697 0.01274637 -0.038570497 0.0055919457 -0.0006163956 -0.001401444 0.027431725 0.012254415 -0.029121587 0.0021539128 0.05728522 -0.02559208 0.020945512 -0.032567456 0.0075878478 0.043368332 -0.08029729 0.024050783 0.029678445 -0.00029452847 -0.025859535 0.027742578 0.0078251455 -0.07685813 0.044920374 0.011213606 -0.00066918886 0.076900735 -0.013027409 -0.14842172 -0.06331295 -0.41686457 -0.1768809 -0.21461564 -0.030956402 0.15881136 -0.1842325 0.07454322 0.10776949 0.18051602 -0.054633893 -0.016295323 0.027594522 0.021966098 -0.014162512 -0.11573733 0.11740163 -0.07617108 -0.1954542 -0.11801928 -0.01391869 -0.10177459 0.14139846
23 0.02321393 0.0067328215 0.07623214 0.0016914546 -0.005944523 -0.009391025 -0.01872748 0.026446547 0.014878072 -0.0608217 0.016197236 -0.049936 -0.017788764 -0.028188122 -0.008691662 0.0018047565 -0.022278495 -0.00511476 0.021414652 0.017540883 -0.0010304722 0.0076630237 0.010680113 0.031384308 0.0049125543 0.019647032 0.008200178 -0.03585388 0.033224095 -0.0017413242 -0.008360254 -0.003133179 -0.0051766913 0.008865605 -0.07257794 0.021060508 0.0137489205 -0.010935478 0.04389656 -0.0063454057 -0.13380446 -0.044621818 -0.38827243 -0.15443133 -0.24202043 -0.033791628 0.17309536 -0.1999806 0.12272048 0.11124526 0.27495843 -0.053182118 -0.0380291 0.051525444 0.052386872 -0.0069534173 -0.07674296 0.09027743 -0.07278581 -0.19789381 -0.12293739 -0.017104136 -0.10460213 0.12653708
15 -0.018095065 -0.06446197 -0.02904741 -0.002854782 -0.08551218 -0.040696163 0.077572435 0.10237436 0.012771766 -0.07545787 0.02211152 -0.012707583 -0.042717364 -0.0080926055 -0.009148596 -0.0015547142 0.035714786 -0.0068899826 -0.021297134 -0.01438101 0.045462906 0.040539656 0.008738566 0.015261171 -0.007660554 0.010677969 0.021741407 -0.008486259 0.028367182 0.047455933 0.039642934 2.2743734e-05 0.0029876488 0.05017146 -0.0846144 0.10255708 0.019376913 0.004923683 0.030364888 -0.010158375 -0.116901286 -0.07897596 -0.40943223 -0.23648852 -0.19790247 0.0293816 0.19045798 -0.2024203 0.046256475 0.041722264 0.12485343 -0.048502743 -0.0016362087 0.02429701 0.029050646 -0.006065089 -0.056543 0.09385163 -0.081489444 -0.18925712 -0.08899239 -0.01506959 -0.07846106 0.170477
17 0.019885253 -0.08489492 -0.007780805 0.010766046 -0.09845411 -0.029951045 0.041319903 0.072870135 6.533585e-05 -0.045237646 0.013653497 -0.0013934311 -0.017767059 -0.010822359 -0.014757797 -0.015060239 0.0013938439 -0.010365987 -0.0052671647 0.009189061 0.049558118 0.075440995 0.0069660353 0.012012697 -0.0057883253 0.018545825 0.039669383 -0.02020356 0.029015252 0.039326522 0.028055808 -0.00010858542 0.0065843835 0.03334364 -0.071454905 0.05074562 0.0101133855 0.0040939017 0.08335909 -0.010788559 -0.13636227 -0.08380344 -0.39428303 -0.19565383 -0.22924945 0.008197441 0.20238775 -0.21557386 0.06296151 0.08654272 0.14557253 -0.057023384 -0.012249124 0.036367353 0.024985807 -0.010851613 -0.1096298 0.10062526 -0.06707847 -0.14977594 -0.10829564 -0.012416876 -0.0917213 0.14336078
16 0.014334826 -0.0627029 -0.027120976 0.02792704 -0.062495064 0.04818659 0.09460589 0.031799655 0.034048073 0.014502043 0.01398614 -0.04263216 -0.025041934 -0.010598683 0.026706811 0.043323424 -0.068867445 0.0061836247 0.004325619 0.041683212 0.032583054 0.025053812 0.029247751 -0.047985252 0.032516863 2.741845e-05 0.021840533 0.03737176 0.0158284 0.013196189 0.028905015 0.009706764 0.013223976 0.034171928 -0.011560192 0.039253257 0.025610276 -0.034316372 0.04891354 -0.0033181114 -0.13634236 -0.10433091 -0.45438066 -0.26515257 -0.19841643 0.03815838 0.19230141 -0.19221978 0.07762912 0.08962986 0.16832705 -0.102458715 -0.01455503 0.041575417 0.024476642 0.012530895 -0.029938832 0.06243993 -0.071128115 -0.11399449 -0.07026406 -0.0013486648 -0.06863303 0.08981539
6 0.057923492 -0.015093488 0.059708234 0.01367948 0.04562609 -0.006088212 0.061286863 0.0056590694 0.03611074 0.017522212 0.0152362585 -0.06844202 -0.027167065 -0.03062852 0.007463704 0.04584203 -0.017950336 -0.037726548 -0.0075899903 0.04932452 0.033237964 0.027657242 0.021770572 -0.008709033 0.012129715 0.010592844 0.059615422 -0.0038145697 0.028552422 -0.029850656 0.048520975 -0.0063647074 0.019588789 0.024414964 -0.05410763 0.050493866 0.027771289 -0.03230707 0.03584184 -0.0074883983 -0.15458946 -0.07329486 -0.45263886 -0.20686121 -0.20666887 -0.02971743 0.15176618 -0.17871925 0.05539171 0.084306195 0.1459769 -0.045021497 -0.0029279918 0.017159332 0.021972563 -0.005052218 -0.04368263 0.08752228 -0.07804127 -0.23034497 -0.11130873 -0.012817637 -0.09899913 0.13435352
10 0.032093477 -0.022354633 0.037475105 0.001478634 0.024346314 0.005486972 0.005329431 -0.017382257 0.028608283 -0.02384523 -0.0028918774 -0.056390475 0.0049268547 -0.0005673222 0.037090905 0.03386198 -0.011001537 0.011130722 0.017629143 -0.006678797 -0.022808054 -0.006119609 -0.00807692 0.020211762 0.011327816 -0.00821635 -0.005170296 -0.019391268 0.012985906 -0.0011997038 -0.017880818 -0.007750945 0.02695954 -0.046171412 -0.06459411 0.018273924 0.019713141 0.0023474551 -0.004775995 0.018972669 -0.091404825 -0.0332739 -0.45243785 -0.2549076 -0.1983719 0.024626266 0.15043375 -0.14852917 0.08478292 0.09878334 0.24977767 -0.05471482 -0.006819289 0.03181538 0.0528186 -0.02430433 0.009056678 0.046078198 -0.040039636 -0.2535424 -0.07030585 -0.02646907 -0.055558454 0.1578419
3 -0.06650889 -0.01930231 -0.04307299 -0.014748774 0.0018450161 -0.0033035427 0.06360211 0.028133335 -0.020361215 -0.024085313 -0.014765118 -0.015693264 0.020739863 -0.023122458 -0.012202443 -0.009244506 0.038344845 0.058537707 -0.008871015 -0.0828611 -0.018920975 0.017425356 -0.040970385 0.004726842 -0.023088524 -0.009814149 -0.01906634 -0.05138718 -0.010473497 0.059415244 -0.05925307 -0.011752539 0.009282982 0.022280114 0.007121433 0.036068864 -0.0015812191 0.009148285 0.019416954 -0.012408677 -0.16216698 -0.10062753 -0.46093383 -0.23283234 -0.22794937 0.0068738605 0.19427343 -0.19714087 0.082622394 0.10542566 0.15256768 -0.12175452 0.0061279885 0.0417558 0.0008316723 5.924591e-06 -0.05100193 0.0662955 -0.047865093 -0.13014898 -0.07194238 -0.007844087 -0.053936116 0.07829093
0 0.004888541 0.018930689 0.013095196 0.01629243 0.00059880025 0.010337334 0.03978826 0.031718533 0.008870406 -0.026571382 0.0047046337 -0.046934746 -0.032052994 -0.02121508 -0.0225436 0.021626066 0.041574366 0.006178707 -0.020490943 -0.031800456 -0.0012142805 -0.01544811 -0.006288802 0.0030188207 -0.037282843 0.0075230114 -0.020432517 0.0003349769 -0.009131014 -0.008066145 0.05615863 0.0014593473 0.014020233 0.021033056 -0.0554337 0.06688522 0.010641125 0.008244382 0.017686183 -0.0027922024 -0.10813977 -0.045500938 -0.43745726 -0.22729538 -0.2521039 0.031503014 0.21157205 -0.22778876 0.024823993 0.13317506 0.15384671 -0.0568289 -0.025562746 0.011478109 0.0108988015 -0.036408845 -0.045547534 0.106153734 -0.08364194 -0.1067765 -0.040538754 -0.010712018 -0.049903642 0.13649301
4 0.017417144 0.007920846 0.033804167 -0.013938757 0.04359067 -0.016338589 0.05572737 0.017722597 -0.006907059 -0.0447714 -0.008781893 -0.03640892 -0.007795884 -0.017527029 -0.023166195 0.005926674 0.08249868 -0.0023549404 -0.028354282 -0.05134453 -0.013960137 -0.022816876 -0.023128355 0.022103228 -0.013538118 0.04136414 0.005291594 -0.013371583 0.0038252433 -0.0023906005 -0.019544221 0.010812999 0.028194405 0.007981282 -0.08451987 0.071108945 0.025579328 -0.010763453 0.014880529 0.0036324249 -0.11958146 -0.04024951 -0.4532344 -0.22368288 -0.25040162 0.0020984078 0.18395934 -0.20014764 0.028117135 0.10933185 0.13752563 -0.054916598 -0.005585334 -0.0041158 0.0006621806 -0.023214681 -0.019758519 0.10146097 -0.08937433 -0.15513623 -0.066523 -0.02021204 -0.052720577 0.13538079
22 -0.0154561475 0.0027088732 0.032105193 -0.009703864 0.06593338 -0.049504276 0.05865035 0.038660888 0.032544438 -0.053275347 0.02517954 -0.060995437 -0.049347516 -0.03459411 0.00055236294 0.029947635 -0.0033203724 0.014070775 -0.0058979494 -0.009646829 0.009714194 0.0038631423 0.005132598 -0.0005663123 -0.023612052 0.02449397 0.034348525 -0.021079954 0.021212872 -0.006484576 0.05455866 -0.0071091945 0.022549415 0.014479085 -0.076899745 0.082043655 0.017825834 -0.0070402524 0.02303622 -0.019209744 -0.11046495 -0.052787114 -0.39476734 -0.19762108 -0.18362616 -0.0018933156 0.15154187 -0.1676252 0.074579105 0.041557346 0.19951686 -0.036985543 -0.029223284 0.016154578 0.043157183 0.0057905493 -0.105871394 0.119065195 -0.101262555 -0.19298562 -0.12977651 -0.038170658 -0.092347674 0.2517141
18 0.02554253 -0.10567722 0.024724461 -0.005921296 -0.1399577 -0.0134699615 0.09037627 0.13108994 -0.027287902 -0.09130041 -0.00750452 0.014099526 0.01562631 -0.0007606841 -0.014606198 -0.03634995 0.02034517 -0.020194016 -0.001509714 0.005556549 0.026262965 0.035590682 0.004952435 0.02488036 0.015902748 0.01980695 0.030935906 -0.022545453 0.01918325 0.024152888 -0.04762589 0.0016271032 -0.039777804 0.046355985 -0.11472248 0.05441398 -0.006294981 0.056746285 0.07694459 -0.0008715523 -0.13129966 -0.08242303 -0.40370503 -0.20809317 -0.2311562 0.009724914 0.18949272 -0.17629921 0.08680727 0.041518293 0.1396632 -0.06740217 0.011558166 0.04695821 0.026559606 0.0003602269 -0.06916548 0.065773904 -0.029984185 -0.19915988 -0.1172651 -0.028225623 -0.06988962 0.14695635
5 -0.0088505875 0.04303365 0.07213598 0.003456862 0.03600191 -0.01943434 0.056666616 0.0812242 -0.01680406 -0.04447831 -0.008942063 -0.02979299 -0.004070818 -0.027783293 -0.027823161 -0.0008510727 0.017115247 0.02403473 -0.0063125207 -0.03436661 -0.0066291885 -0.0004321324 -0.00935002 0.0060658464 -0.01922394 0.0025443644 -0.018151414 -0.053592347 -0.0027310387 -0.014589874 -0.03783896 -0.015365723 0.010422329 0.0111367535 -0.07614757 0.05457846 -0.002918579 0.049936607 0.06092459 -0.009959041 -0.14588064 -0.06417521 -0.44241935 -0.19007507 -0.22184469 -0.0218711 0.15503319 -0.16096884 0.058586087 0.08045013 0.13786848 -0.05363846 -0.015118227 0.026734404 0.020073783 -0.010000454 -0.0930276 0.119121246 -0.08642467 -0.19453646 -0.11261262 -0.0201959 -0.08924283 0.16510211
11 0.05743235 0.021959519 0.08875361 -0.011094533 0.035741486 0.03262527 0.06571408 0.020480298 -0.022665584 -0.03603598 -0.016534507 -0.017908117 0.01786456 -0.026416903 -0.010004323 -0.002335533 -0.018123064 0.012668946 0.007794629 -0.00032930166 -0.015413956 -0.027378928 0.005852121 -0.012397088 -0.0034747203 0.0007424133 -0.034170125 -0.03011416 -0.015820982 -0.029972997 -0.06394046 -0.008593471 0.013608457 -0.022543304 -0.08277016 0.026141968 0.00357444 0.039408676 0.04732129 0.008970095 -0.108044066 -0.03511611 -0.46892264 -0.22908683 -0.23801385 0.0071256743 0.15437798 -0.13746011 0.076803565 0.12646283 0.20633961 -0.08641127 -0.025479365 0.020138912 0.015461228 -0.009654257 -0.060730193 0.08817243 -0.05462295 -0.12965602 -0.07998119 -0.03350755 -0.04399806 0.15248069
20 -0.023858583 -0.06953638 -0.017048407 0.004313716 -0.037035376 -0.05134981 -0.0037331022 0.03480831 0.017888568 -0.07783054 0.015750784 0.010350078 -0.020372031 0.03330897 0.013190576 -0.019543832 0.009925145 0.018122053 0.0069474042 -0.026053933 0.011076991 0.053452082 -0.013023423 0.0384112 0.01934981 0.05476038 0.035600558 0.022205943 0.034953736 0.04880015 0.006501279 0.029806053 0.022016332 0.0041549103 -0.06340995 0.029411959 0.036471218 -0.059056386 0.050407246 -0.0037309742 -0.12857553 -0.07249498 -0.38014156 -0.19517203 -0.22559209 0.00024896537 0.20400491 -0.2342102 0.07866637 0.06860825 0.20186603 -0.02220386 -0.026114712 0.021278119 0.047301035 -0.0058861645 -0.041802555 0.08247957 -0.08314372 -0.21481827 -0.09132596 -0.024647847 -0.081972875 0.16019844
2 -0.03561009 -0.004079155 0.043057565 -0.016415574 0.011233206 -0.00399747 0.087421 0.094143376 -0.0041946364 -0.035672653 -0.0096081775 -0.048517257 0.016455708 -0.03762151 0.0033274929 0.012750385 0.0076553747 0.01718894 0.0030292824 -0.022462426 -0.024243645 -0.019409632 -0.0156131545 0.001259186 -0.015330246 0.008258286 0.042102225 -0.035548568 0.003624331 -0.0041341716 -0.0074555385 -0.0151009625 -0.027819945 0.06253768 -0.09139357 0.091842994 0.00057331525 0.03050358 0.043535993 -0.01750148 -0.13549577 -0.06702819 -0.46037546 -0.22964431 -0.17978936 -0.00714691 0.13857216 -0.14403598 0.094491355 0.051416043 0.1927877 -0.071086325 -0.018716 0.031097112 0.02965117 0.00911751 -0.042548805 0.06443089 -0.041760102 -0.18234935 -0.073678195 -0.023669586 -0.052863777 0.14073916
14 -0.021199182 -0.065309204 -0.0036122135 -0.0003336926 -0.06157212 0.0115739675 0.013364911 0.044389922 0.0096024275 -0.047233008 0.008258549 -0.043724198 -0.0022626386 -0.03306733 0.008649528 0.0100487545 -0.010507173 0.008467965 0.012104773 -0.0017835447 -0.009954692 -0.013182118 -0.001674749 0.002124757 -0.017651193 0.0028460443 0.027541634 -0.020233812 0.014741922 0.032962043 0.02683452 -0.009150146 -0.029898921 0.06119735 -0.0949696 0.085614905 -0.0007481749 0.025035368 0.061300967 -0.010936628 -0.087298326 -0.06839356 -0.41261446 -0.2640138 -0.2253478 0.072835095 0.22498526 -0.20871276 0.082283005 0.046359777 0.19357525 -0.07429406 -0.01641169 0.04166129 0.03540108 -0.0016876647 -0.06962806 0.05299537 -0.03052956 -0.06524249 -0.06531113 -0.023898803 -0.033471838 0.1511864
1 0.02226519 -0.019074677 0.009212954 -0.0069567943 -0.008800772 0.035050977 0.06473765 0.00937477 0.0013471568 -0.020677514 -0.0018157883 -0.043134894 -0.0032178082 -0.030262206 -0.005497806 0.020209031 0.06624925 -0.008233713 -0.027557459 -0.033419143 -0.0037174467 -0.03969035 -0.006416499 0.0010016129 -0.03586799 -0.02356263 0.02870032 0.0018447457 -0.016689235 -0.009599433 0.06281626 -0.0194772 -0.04445305 0.102025196 -0.093033485 0.097358584 0.016260872 -0.0043902984 0.062570676 -0.008114978 -0.14002638 -0.07752582 -0.48603296 -0.2646198 -0.2298303 0.01675037 0.19383135 -0.20673059 0.013529258 0.0690108 0.060430534 -0.035512522 0.0041682366 -0.0020680586 -0.0070495205 -0.017118609 0.016013045 0.07165524 -0.05638199 -0.17842577 -0.034795582 -0.0098274 -0.036913753 0.07712156
21 -0.00026497326 -0.006199984 0.04860172 0.0048550246 -0.009354247 0.0065832417 -0.046825603 0.005425177 -0.0021824967 -0.04372403 0.011477238 -0.013720976 -0.004310566 -0.018693335 -0.015472062 -0.0152123105 -0.00457034 -0.02962811 0.0145928385 0.030981464 -0.004377724 -0.019375525 0.014104947 0.028975837 0.00553254 -0.009422767 0.005041251 -0.019995475 0.01583833 0.005874183 -0.0116039915 -0.008000924 -0.0245116 0.023914285 -0.09388894 0.042648423 -0.00058516953 0.0247307 0.051082265 -0.00707008 -0.110214315 -0.05633526 -0.40735227 -0.21276183 -0.25480336 0.01989403 0.20991838 -0.20254874 0.1001768 0.02870048 0.21418378 -0.038385093 -0.015566798 0.047153596 0.05366485 0.0006540921 -0.067420565 0.055720907 -0.042027764 -0.15640499 -0.11624005 -0.03059676 -0.06885646 0.16570757
13 0.0058904076 -0.0835196 -0.016276196 -0.0109644905 -0.07109225 0.005805576 0.013755868 0.021425558 0.017834427 -0.052721974 0.028107688 9.144381e-05 -0.0132737225 -0.015942626 0.02323112 -0.00905916 -0.029255532 0.0030418918 0.01416673 0.016468741 0.028928922 0.033453878 0.015428775 0.0052672783 -0.015253826 -0.020679465 0.05637154 0.0007267273 0.01853174 0.04639785 0.07563528 -0.01675961 -0.024500597 0.06528024 -0.09275714 0.070790686 0.020949107 -0.025502538 0.08262937 -0.013446495 -0.116181634 -0.07604421 -0.43508562 -0.25435397 -0.18579198 0.025925957 0.17719491 -0.18669362 0.091608785 0.059555676 0.20972176 -0.044348028 -0.030387584 0.028344767 0.04426835 0.0037242586 -0.04523844 0.051771235 -0.034605086 -0.1652227 -0.061057646 -0.02029179 -0.05210831 0.127071
12 -0.014558838 0.015539444 0.014373102 0.024535108 -0.04849009 0.04632042 0.014290102 0.055827796 0.008038866 -0.006251871 -0.0049206475 -0.058166053 0.0045244247 -0.03236107 0.0070359153 0.029570634 0.0035150445 0.036931004 0.0063800467 -0.039525054 -0.028605476 -0.022643032 -0.018210385 -0.005293294 -0.04392023 -0.036483947 -0.022252532 -0.03701402 -0.015123792 0.009946327 0.035759512 -0.026448468 -0.016690556 0.042721108 -0.065182924 0.06792255 -0.010231821 0.053768456 0.054452404 -0.0010271886 -0.093463406 -0.05867455 -0.42577347 -0.25334004 -0.20439766 0.062182028 0.19030671 -0.18124197 0.05645897 0.12823306 0.17666413 -0.09712264 -0.011221207 0.04198184 0.016507303 -0.03212536 -0.057753704 0.102991104 -0.06538596 -0.14752711 -0.05649668 -0.008499654 -0.0556383 0.13679563
9 0.017944764 -0.02056193 -0.00085359067 -0.04358274 0.018687943 -0.02604094 -0.01798053 -0.029847605 0.029730294 -0.034320097 0.021647587 -0.03207775 0.0010470444 -0.042753167 0.056550007 0.018661732 -0.060209893 0.065977186 0.0341596 -0.027109968 -0.0015011075 0.03950326 -0.010690774 -0.0052827257 -0.04193369 -0.04646939 0.0016925075 -0.08822555 0.020219732 0.079107836 0.013764077 -0.047378454 0.03009425 0.0046564015 -0.067660294 0.0700135 0.0143195 -0.0022845 0.042962264 -0.00039851942 -0.08316812 -0.0636457 -0.43884 -0.29367855 -0.1384494 0.062306598 0.14143229 -0.12906641 0.088421755 0.10435863 0.21630202 -0.12179447 -0.0005408955 0.026316578 0.014718002 -0.00092272257 -0.10363325 0.101888694 -0.058424074 -0.14985582 -0.094415404 -0.029061828 -0.056197494 0.18591882
19 -0.0012264706 0.006304711 0.0509597 0.004471415 -0.044960156 0.031785045 0.05636314 0.09395678 0.006935521 -0.05046834 0.007290298 0.009068841 -0.0061638816 0.011612038 0.027293881 0.00044222118 -0.041451145 0.024217676 0.01482479 0.0050408537 -0.0023621079 -0.025902642 0.0211812 -0.017338634 0.027195396 0.0123601165 -0.003192898 0.037657652 0.009380687 0.013391249 -0.0052074725 0.013121203 -0.041301128 0.09637629 -0.10897897 0.08613562 0.033877503 -0.033761777 0.10125783 -0.0012971432 -0.11818328 -0.0961732 -0.42685208 -0.27066025 -0.19281186 0.045088507 0.19383924 -0.19331287 0.071933426 0.056225672 0.13389935 -0.07399981 -0.015621863 0.01980628 0.013064085 0.018363256 -0.015004874 0.09239834 -0.09153656 -0.16060726 -0.076545574 -0.020438358 -0.05958587 0.11535731
7 -0.08367263 -0.049333464 -0.05327547 -0.006152999 -0.019557202 -0.03796403 0.0401476 0.06804645 -0.007954712 -0.024831647 -2.5776479e-05 -0.0122238295 0.010324492 -0.028142398 -0.0028463989 -0.0085912105 0.045757387 0.042513695 -0.012557228 -0.072068796 0.0018074543 0.042597577 -0.039559323 0.010197072 -0.068169646 -0.022751903 0.05628849 -0.034755133 -0.01356402 0.04659897 0.08305595 -0.029034419 -0.010502637 0.07487707 -0.08202213 0.1060723 0.0030647633 0.01071231 0.0888851 -0.030669544 -0.12513891 -0.08440263 -0.42135417 -0.23769517 -0.15819655 0.023261607 0.16631548 -0.18134606 0.05214514 0.045475956 0.14190482 -0.032163475 -0.023780702 0.014291874 0.029448297 -0.010293875 -0.096151724 0.10501276 -0.06314416 -0.20721444 -0.06908616 -0.023741312 -0.065173216 0.20084715
8 -0.083214834 -0.028404122 -0.003910009 -0.01210168 0.02629013 -0.05574765 0.029760411 0.07139328 0.009800665 -0.053244356 -0.0021052577 -0.049728207 0.0035500359 -0.021524357 0.012534343 0.012340245 0.022792466 0.031831954 0.0040710196 -0.047892973 -0.018144732 0.017853891 -0.03134436 0.025733514 0.004884494 0.017610459 0.036234837 -0.04745422 0.03300744 0.057083223 -0.03940999 -0.005462895 0.031008968 0.003029248 -0.10250227 0.092746116 0.017411968 0.017565051 0.04259452 -0.0071430644 -0.11474782 -0.07264791 -0.46040386 -0.27339616 -0.17182998 0.02811858 0.15920277 -0.15533397 0.07949678 -0.0036500478 0.17988598 -0.037826043 0.0012970297 0.030234646 0.05594419 0.0048354943 -0.027949976 0.030665897 -0.032323997 -0.19730793 -0.07211612 -0.020219648 -0.05128411 0.15409046
