24 64
24 -0.07936307 0.0751142 0.09406396 -0.012847172 -0.010169502 -0.10869239 -0.12729976 -0.010789147 0.086954124 -0.07611228 0.17222163 0.12163001 0.009278621 0.0046342597 0.014956945 -0.08825068 -0.039392486 0.097524926 -0.18104415 -0.15342703 -0.15879712 -0.12580077 -0.012283291 0.13314295 0.025481036 -0.075252846 -0.07035029 0.077442184 0.059807003 0.114210375 0.21730003 -0.08125935 0.016069887 0.00016295745 0.03359477 0.038977966 0.013832544 0.0051690005 0.0050985008 0.0047027264 0.008670337 -0.014800489 -0.014518303 0.034350134 -0.039331585 0.060504183 -0.037700288 0.00024525655 0.012616941 -0.0058936505 -0.0057744854 0.029091945 -0.04205574 0.018654533 0.021526312 -0.0036511733 -0.035792768 0.030912481 0.018641869 -0.0077946577 0.036614187 -0.034053635 -0.05788435 -0.020970374
16 -0.07596662 0.008751405 0.03178624 -0.095685154 -0.04085509 -0.04792109 -0.08761236 -0.0048307227 0.07034605 -0.06815699 0.13182919 0.16940193 0.072506815 0.009358617 0.0021497265 -0.073757246 -0.024965886 0.11399051 -0.1727393 -0.14334969 -0.13699333 -0.06119024 -0.09757439 0.11464577 0.024016105 -0.008931665 -0.06437121 0.042843614 0.11816642 0.13077766 0.2657547 -0.05426855 -0.03223836 0.02278117 0.02838423 -0.00011142306 -0.0014426571 -0.0050455662 -0.01337087 -0.011559693 0.01488152 0.0104409885 0.02634688 -0.08148875 0.034552492 -0.00020882153 -0.030932108 -0.05242618 0.0019698462 0.00024154168 0.018003 -0.042230714 0.04235368 -0.01671106 -0.04064579 0.018785939 -0.013104684 -0.02401036 0.07270633 0.07514412 0.00996585 -0.008228893 0.03706831 -0.0051243114
23 -0.044982165 0.027720546 0.013922818 -0.0012018793 -0.024818083 -0.06828759 -0.10701227 0.001058752 0.1122412 -0.07477945 0.10784251 0.108508416 0.002070278 0.0340767 -0.0055769724 -0.04918789 -0.038318824 0.12978636 -0.18154329 -0.15041274 -0.14292821 -0.09581865 -0.019198565 0.11056866 0.05657304 -0.039874498 -0.075865194 0.036551375 0.12948543 0.13407095 0.28088897 -0.101460405 0.047099955 -0.015525948 -0.029428529 0.016622731 0.052904483 0.0007244934 -0.0037813168 -0.03654739 0.020330617 -0.0016477956 -0.008109127 0.03582426 -0.048091833 0.052725997 -0.039853156 0.004225661 0.0011740029 -0.0016265056 -0.009331853 0.024875982 -0.0150112 0.004501799 0.025248263 -0.01252649 -0.0373359 0.054304898 0.01683084 -0.021373376 0.044895377 -0.030249897 -0.057838015 -0.0017983486
17 -0.006002567 0.07489451 0.061307628 -0.10606236 -0.0400283 -0.07026866 -0.10313581 -0.04369286 0.069803216 -0.06860616 0.13504446 0.1523232 0.058532063 0.012052601 -0.0048135347 -0.10113474 -0.035760958 0.0914753 -0.20498054 -0.19216357 -0.17126939 -0.119806446 -0.062320363 0.15438646 -0.0066496455 -0.003918739 -0.047221966 0.07026611 0.08911747 0.08499555 0.2156599 -0.03339176 -0.038784545 0.011354725 0.07042139 0.0291083 -0.044788506 0.006758921 0.004035721 0.03905291 0.018775873 0.028067991 0.016621368 -0.025620483 -0.025241252 0.013077118 -0.021256283 -0.031137316 0.0149005 -0.013600896 0.031123918 -0.031540856 0.00028020365 0.009151155 -0.05786062 0.036387324 -0.007884028 -0.031881686 0.024052067 0.04637983 -0.037947785 -0.015903214 -0.022529712 0.04257668
3 -0.13107191 0.016686937 0.07101326 -0.10365715 -0.015574544 -0.045470234 -0.0672028 0.027058575 0.09189145 -0.07856793 0.16824387 0.09763946 0.031339247 -0.015965026 0.006972515 -0.08245539 -0.058779985 0.05696305 -0.11133233 -0.03624224 -0.1435756 -0.12720071 -0.075328715 0.1617174 0.019938093 -0.002901538 -0.07232298 0.06465484 0.12894769 0.17479955 0.2616469 -0.050249875 8.0488084e-05 0.008004224 0.004945827 0.00013765824 -0.012429271 -0.0142775485 -0.019205678 -0.025713991 0.015046737 -0.008018118 0.019505301 -0.079405636 0.041308846 0.0067784553 -0.033578347 -0.03856387 -0.00061060855 0.023527082 -0.033104427 0.010926196 -0.0033756378 -0.0049961195 0.06189493 -0.036332022 0.0032901284 -0.01852729 0.06282753 0.05004612 -0.020499147 -0.040171992 -0.0015865779 -0.033632815
6 -0.036338378 0.02789294 0.028650846 -0.027625758 -0.043651026 -0.07034149 -0.11354646 -0.014579241 0.13096927 -0.08093786 0.09437382 0.10352157 0.0074205827 0.038068067 -0.018471926 -0.05560065 -0.07158833 0.13082759 -0.17664203 -0.08306148 -0.1859634 -0.14704755 -0.07075916 0.180834 0.04450792 0.023286466 -0.021471571 -0.04650004 0.128912 0.08490963 0.21148378 -0.101550885 0.091193944 -0.041366454 -0.0523641 0.026182784 0.05201006 0.005980173 0.00054707605 -0.031263907 0.030644827 0.0077545135 0.010476429 -0.016327007 -0.0063529448 0.020352218 -0.03523593 -0.014578431 0.0014261598 0.024606535 -0.024582706 -0.012600264 -0.023177082 -0.0048894864 0.064113386 -0.026909806 -0.035635225 0.048841096 0.09838698 0.044592366 -0.017918134 -0.07755326 -0.024596997 0.022528427
15 -0.03734933 0.057265036 0.08513712 -0.120454326 -0.054240882 -0.05864726 -0.084352 -0.052491553 0.093772836 -0.08611751 0.17069754 0.1522254 0.03277149 0.022157954 -0.0066323793 -0.12663388 -0.033348393 0.049450945 -0.16839194 -0.16071638 -0.108482875 -0.094904 -0.033278134 0.11119997 0.03023544 0.006821043 -0.052093472 0.028287714 0.13272166 0.08998287 0.25708848 -0.07829808 0.008239615 -0.007499475 0.005950339 5.6651434e-06 0.0065146354 0.015689692 0.00796037 0.030447975 0.02968997 0.017829254 0.015189645 -0.034081336 -0.017751317 0.03450052 -0.038686983 -0.036542468 0.023912542 -0.021267705 0.022457397 0.009914566 0.0037083495 0.013953001 -0.032996256 0.008102541 -0.0086826645 -0.034065053 0.07804637 0.084973305 -0.006529946 -0.016259322 -0.044164855 0.0033872921
10 -0.035890233 0.03334935 -0.06433981 0.00032985405 -0.016817374 -0.054396287 -0.11726261 0.024965864 0.124402985 -0.06754042 0.04923628 0.093532465 0.011994406 0.042709332 -0.020098979 -0.0018066198 -0.05102293 0.14918014 -0.17784682 -0.1270176 -0.19931328 -0.13064368 -0.055216752 0.1667719 0.04191983 0.0013647429 -0.054347035 0.011359274 0.13645735 0.11295984 0.25862542 -0.082771435 0.06112979 -0.021440748 -0.01779936 0.036359385 0.032537073 -0.0021219116 -0.0074228332 -0.034450814 0.00985788 -0.01090041 -0.0016730619 -0.0038727324 0.004242681 0.023004143 -0.028036755 -0.0083834585 -0.014106364 0.026928047 -0.031915937 -0.0035726216 -0.010752699 -0.0123744365 0.06572673 -0.028061101 -0.037094813 0.013672892 0.056381114 0.034878097 -0.011996832 -0.07015487 -0.02415302 0.026324667
4 -0.10133333 0.039215703 0.010156172 -0.07882444 0.029399658 -0.06643004 -0.107282534 0.070616536 0.11872895 -0.09537728 0.1669427 0.17003505 0.083260335 -0.011368217 0.0036819987 -0.06798752 -0.06493169 0.13239212 -0.15832312 -0.038609758 -0.111874595 -0.068556175 -0.1093882 0.11910424 0.032998424 -0.016582392 -0.059246298 0.022646647 0.09527812 0.20436423 0.19919771 -0.036286112 0.004845998 0.004781885 -0.016050566 0.0068550548 0.018409098 -0.023327326 -0.031185007 -0.07332604 0.022736372 -0.0036337094 0.013867509 -0.0427709 -0.0037860924 0.028877806 -0.050623573 -0.022107039 -0.0025930672 0.027846966 -0.0490105 0.03719402 0.0036262472 -0.0016866755 0.08072634 -0.05397037 0.012911227 -0.00010463271 0.033592667 0.012871821 -0.03656209 -0.05149714 -0.045383383 -0.013112785
14 -0.0687616 0.05392655 0.07688235 -0.13258918 -0.021590158 -0.049828265 -0.071895614 -0.010736569 0.036162615 -0.054328747 0.13721694 0.13318613 0.067734815 -0.010147363 0.0038514666 -0.10273403 -0.05816228 0.08765819 -0.20643912 -0.13286836 -0.12373194 -0.09811976 -0.1009601 0.14295101 0.021134084 -0.0006485292 -0.05717024 0.040973447 0.1191707 0.14038004 0.25163433 -0.05253788 -0.043498985 0.013315999 0.029649168 -0.014313911 -0.028713081 0.010622943 0.006453003 0.046259053 -0.009012158 -0.0041903183 0.006897288 -0.043070238 0.03667331 -0.013840129 0.010280243 -0.019301515 0.0363173 -0.019817647 0.03389589 -0.01988316 -0.02051685 0.026124354 -0.058521435 0.03574669 0.012172859 -0.05724709 0.033583887 0.06511394 -0.022665057 -0.011146457 -0.03142456 0.04004359
22 -0.12843814 0.0047750804 0.057053056 -0.07580561 -0.08699091 -0.063812286 -0.11939352 -0.020739634 0.11931037 -0.07269742 0.09098875 0.07303134 -0.022432422 0.054690257 -0.023198362 -0.017422955 -0.06321824 0.14337994 -0.17753723 -0.09867582 -0.16153452 -0.13198866 -0.027420392 0.14389046 0.023741681 -0.036330234 -0.050483894 0.025609747 0.09204701 0.10642966 0.26387748 -0.0992107 0.033422887 -0.016532239 -0.0049330303 0.02468856 -0.006770792 -0.0031914425 0.0037283143 -0.0074182386 0.029259061 0.024248432 0.0027885693 0.038510107 -0.058660302 0.013452095 -0.017573014 0.015226455 -0.009572342 0.017488997 -0.01928327 -0.0045714597 -0.044536363 0.0047208476 0.042931497 -0.0070081693 -0.006891522 0.053452183 -0.03782339 -0.06290508 -0.04734023 -0.037626334 -0.025775354 0.04415459
18 -0.041600958 0.038868397 0.019603787 -0.14217103 -0.03548209 -0.032181025 -0.08705941 0.009329533 0.13958901 -0.105969325 0.15869232 0.16491556 0.05185654 0.026943846 -0.02187829 -0.11387686 -0.07579462 0.09915393 -0.19234236 -0.09403428 -0.116372064 -0.10591241 -0.08246613 0.14160354 0.03390022 0.038162127 -0.039465163 -0.0037308827 0.13589779 0.122757494 0.20483518 -0.04532413 -0.032192454 -0.00044261964 0.013288622 -0.015799917 -0.023734685 0.015150807 0.0065345448 0.046965078 -0.008113483 0.01625776 0.009574356 -0.028819008 0.013527645 -0.026586605 0.028605307 -0.010993091 0.020547705 -0.030312845 0.031413026 0.016557049 0.015841354 0.017789008 -0.05771234 0.014820736 0.027857576 -0.020960797 0.02082096 0.026386175 -0.061049648 -0.0131621575 -0.07635188 0.015558868
5 -0.105468005 0.043899186 0.03205909 -0.013601668 -0.0026720993 -0.08150187 -0.118068665 0.034867052 0.13365372 -0.08974055 0.13462369 0.12744048 0.032652345 0.014708687 -0.004779467 -0.025215132 -0.072995864 0.15324259 -0.16061908 -0.028575847 -0.12307068 -0.09305152 -0.072306894 0.12269998 0.02521581 -0.065068364 -0.037590437 -0.01844994 0.04990637 0.18594798 0.24209948 -0.11356621 0.003677218 0.0023941696 0.0006530397 0.011016736 0.0010871424 -0.009630536 -0.013793686 -0.02618094 0.02902813 0.005632376 0.008960048 -0.014751976 -0.021214085 0.03299573 -0.048948113 -0.017796041 -0.017921874 0.029999753 -0.044538677 0.019946964 0.004772664 -0.011034124 0.07612337 -0.04691174 0.001485218 -0.012086893 0.033596147 0.028389337 -0.070959605 -0.06179777 -0.031973857 0.023518207
11 -0.06902211 -0.021237865 0.07321908 -0.031360894 -0.072377935 -0.081915766 -0.12995219 -0.010828806 0.14096439 -0.091778785 0.12360931 0.12970632 0.016613564 0.033601165 -0.010437696 -0.056776907 -0.07225286 0.16958998 -0.18163694 -0.054840278 -0.15454902 -0.10731103 -0.080805205 0.14160432 0.023901436 -0.024992362 -0.022493178 -0.03270425 0.07850916 0.13356431 0.22986336 -0.10608164 0.0134439105 -0.008809785 -0.008079956 0.013974206 0.025354013 0.0045264037 0.0009335555 -0.013149579 0.0087938225 0.021274015 0.0025902353 0.024139605 -0.030814769 0.0010127638 -0.0030680236 0.0023882089 -0.023442006 -0.00058368716 0.0075536617 -0.016520351 0.04238044 -0.023652615 -0.017892908 0.003259995 -0.020961601 0.08844509 0.013899428 -0.04260152 -0.018633373 -0.022569623 -0.013600774 0.0032514017
1 -0.046543162 0.09979918 0.074593045 -0.042235345 0.05755572 -0.069599256 -0.061878577 0.031789206 0.07321515 -0.076421425 0.18862998 0.13367288 0.06679764 -0.03569386 0.01936204 -0.096967824 -0.07082037 0.080629684 -0.14553493 -0.030732036 -0.108710445 -0.104073934 -0.08642127 0.13760625 0.04321531 -0.02344849 -0.06224636 0.020755224 0.12177379 0.19008343 0.26442832 -0.089746356 0.04114173 -0.022441028 -0.049792007 -0.02564531 0.014040867 0.0038640636 0.015356017 0.008408377 -0.00046630812 -0.008452678 -0.001371157 -0.005549089 0.007878549 -0.0043416917 0.009853576 0.008909402 0.037529323 0.010095147 -0.034787152 0.055729784 -0.056766503 0.033713933 0.07941557 -0.047832873 0.03684197 -0.06479169 0.054414716 0.06894472 -0.025054762 -0.012340264 0.0074242437 -0.03599172
12 -0.07488152 0.006556602 0.025733477 -0.10858229 -0.015963651 -0.029602192 -0.07542365 0.03969941 0.119486295 -0.093284816 0.16700864 0.1250065 0.014793257 0.01759892 -0.0034787466 -0.1100585 -0.07289523 0.10240655 -0.16969989 -0.06683467 -0.12421817 -0.110034235 -0.06884536 0.13865796 0.037377786 0.011412703 -0.06852814 0.04622528 0.14606674 0.12798944 0.2611779 -0.053722754 0.008604465 -0.014296026 -0.025390228 -0.032759525 0.0067472984 0.026017642 0.027326653 0.06444262 -0.03741111 -0.022557527 -0.01602887 0.008631268 0.041130483 -0.026964745 0.05155172 0.01809537 0.021964762 -0.022000141 0.01666501 0.024426235 -0.0020791339 0.015937056 -0.020940147 0.0005848602 0.019050287 -0.06743042 0.014644389 0.055494912 0.014651774 0.02910593 -0.014904536 -0.0041802586
19 -0.08714317 0.0015815619 0.027792841 -0.12958205 -0.0483774 -0.03098134 -0.07921512 0.007578538 0.12240742 -0.093672656 0.15178645 0.14142959 0.035986036 0.027345741 -0.014318553 -0.07923821 -0.051136162 0.108194314 -0.17787921 -0.12420819 -0.13246858 -0.09724359 -0.059775718 0.12824969 0.021454243 0.00939949 -0.06341311 0.056414098 0.12490141 0.1168238 0.23546584 -0.032933734 -0.016773341 0.0023696155 -0.0069813863 -0.026034456 -0.014276379 0.0036058144 0.004643835 0.020904597 0.00813073 0.014523523 0.007443553 -0.009071306 -0.011780393 -0.0021937266 -0.00029603776 -0.0063300645 -3.9545925e-05 -0.007181848 0.0007653191 0.0203687 0.025146734 -0.00074368477 -0.0078570675 -0.011509155 0.031138463 -0.06753142 -0.00896687 0.03732884 -0.027302891 0.0339725 0.00628237 0.00016923153
21 -0.073733814 -0.0037127533 -0.0060437736 -0.07667337 -0.06003949 -0.045555755 -0.10567584 0.0025586986 0.15158728 -0.09384865 0.10800983 0.11249867 0.0135725895 0.047072362 -0.026270693 -0.024039047 -0.044041216 0.13612227 -0.1731753 -0.14610349 -0.17900313 -0.122972086 -0.026871316 0.14538136 0.021658119 0.0013665417 -0.06680825 0.06936642 0.12311114 0.10795912 0.22583224 -0.032376837 0.016084824 -0.0074201664 -0.018685969 0.0056657777 -0.005249795 -0.019298142 -0.015868232 -0.048737757 0.039156657 0.03240622 0.011491173 0.020320797 -0.07075118 0.02585703 -0.037514936 0.0018431974 -0.02672167 0.017111072 -0.031858444 0.02632006 0.017085921 -0.013706346 0.04803849 -0.03495576 0.01976532 0.001173571 -0.053097047 -0.04324547 -0.03853766 0.015426707 -0.0014912159 0.002068783
2 -0.061674956 0.018470827 0.06579459 -0.07648609 -0.011196181 -0.033339556 -0.044453636 0.013913755 0.10752871 -0.08496419 0.15750648 0.12588014 0.05518568 -0.012270397 0.0056569753 -0.06766767 -0.066634655 0.12005239 -0.1384446 -0.016450508 -0.106607504 -0.08158062 -0.09284531 0.11924555 0.010819552 -0.008430609 -0.05390464 0.03092104 0.118140094 0.19723761 0.29662544 -0.067736685 0.0032213216 -0.002601585 -0.024025353 -0.018421223 -0.009040468 -0.009813162 -0.0076776026 -0.016601503 0.017328307 0.017800558 0.016265964 -0.02754922 -0.005089315 -0.013197924 -0.008379326 -0.008198265 -0.0026637486 0.021527318 -0.03981739 0.034806848 0.0025239862 0.00013401566 0.06819352 -0.05013396 0.036572836 -0.025701331 0.028787011 0.027583698 -0.09013968 -0.041906975 -0.022437504 0.00926059
9 -0.10820413 0.040940158 0.022017388 -0.054830328 -0.05671656 -0.07357172 -0.12657888 -0.0182085 0.1338822 -0.09127693 0.13140853 0.1488041 0.016966082 0.05702413 -0.020541685 -0.017282575 -0.04160322 0.13611719 -0.17841938 -0.134763 -0.15379007 -0.10372171 -0.037965428 0.12608005 0.037479814 -0.035955872 -0.037230432 -0.012124777 0.078347236 0.07057216 0.23101708 -0.113457344 0.03656555 -0.015218654 -0.0079288 0.006483584 -0.007853855 0.0031688442 0.02346011 0.021728994 0.022577714 0.031454753 0.004555908 0.038551956 -0.054827735 -0.0030595853 0.0009271761 0.012050542 -0.018117076 0.024309726 -0.04157063 0.029002586 -0.008321553 -0.007987172 0.074618146 -0.04493093 0.030122986 -0.034250673 -0.009592999 0.008224903 -0.06842451 0.013487968 0.09138933 -0.035653997
20 -0.067846105 0.04436382 0.018551862 -0.07577432 -0.03652042 -0.076598026 -0.13006012 -0.0054156147 0.123738185 -0.08893561 0.13249119 0.15491833 0.028216654 0.047652625 -0.015714455 -0.039862175 -0.041290764 0.16372688 -0.2098972 -0.1658593 -0.16211076 -0.09604834 -0.04021624 0.120897256 0.00788935 -0.040240046 -0.05187724 0.060923066 0.056521475 0.07287365 0.19750461 -0.045579325 0.007300813 -0.0058640954 0.006027723 0.011239743 -0.019728893 -0.00590481 0.005822176 -0.00087445474 0.031824175 0.027459055 0.004571929 0.037011426 -0.07314084 0.02683291 -0.031192217 0.006815673 -0.010848259 0.019618968 -0.028215673 0.0122551145 -0.005277812 -0.0018208887 0.043032225 -0.024638753 0.029753992 -0.078622475 -0.042516235 0.021272566 -0.062993035 0.02096105 0.03498307 0.03828739
13 -0.10861616 -0.02446393 0.08554705 -0.13823415 -0.05675818 -0.051500022 -0.09408297 0.0042028264 0.0959703 -0.08537952 0.18434191 0.12461033 0.0014862074 0.018416155 0.0066260006 -0.1119276 -0.055689145 0.10463576 -0.17442745 -0.0967139 -0.14409152 -0.10985032 -0.067127384 0.13829379 0.0021207582 -0.0052829375 -0.058823362 0.0812993 0.09969601 0.07898218 0.2392931 -0.037105 0.008528557 -0.009756503 0.006622277 -0.0077693304 -0.0051611164 0.025762707 0.03249239 0.07317294 -0.03710898 -0.02488246 -0.024563352 0.040888444 0.013750473 -0.005720181 0.03595971 0.022386283 -0.005606922 -0.006402831 -0.0026180716 0.023379277 0.020680396 -0.005949947 0.0035706898 -0.013258743 0.008524567 -0.079280935 0.005784119 0.05910491 -0.0029321304 0.02829275 0.0176466 -0.011202052
7 -0.13570888 -0.06424153 0.1058642 -0.12377096 -0.06858225 -0.043108042 -0.06972746 -0.0036626866 0.073947504 -0.07043827 0.15699695 0.10150614 0.0063546663 0.015339427 0.0020057803 -0.087969534 -0.07076386 0.14048879 -0.21261598 -0.10410489 -0.1351283 -0.103845015 -0.081160754 0.13683997 0.014120273 -0.021912364 -0.055935286 0.053643104 0.08269083 0.110268 0.21574353 -0.04278903 0.0034338941 -0.00014204874 -0.035809528 -0.029211001 0.026146896 0.0039624716 0.00076871103 -0.0024577773 -0.0049256687 -0.03103936 -0.016128806 0.018043078 0.0063776565 0.03553762 -0.02797951 0.0047482224 -0.016440857 0.010020945 -0.021206064 0.02047847 0.04417054 -0.01872604 0.026002996 -0.03222669 0.012945378 -0.08678966 0.015242769 0.07394128 -0.0026220244 0.024528643 0.0027389945 0.016965825
8 -0.122610636 0.031996645 0.067974284 -0.10896539 -0.048718106 -0.06481164 -0.10394768 -0.009007952 0.10435653 -0.075405754 0.11407662 0.09376486 0.004072261 0.044020858 -0.02528885 -0.04630346 -0.07964842 0.15119089 -0.20558883 -0.088363014 -0.11055357 -0.10374542 -0.04270286 0.11715732 0.017738257 -0.05274819 -0.043926697 0.013110716 0.05039827 0.1298614 0.21601115 -0.08082153 0.042456407 -0.022033915 -0.0720403 -0.016413268 0.02800124 -0.014143 -0.019899212 -0.061713208 0.093532786 0.024035793 0.022229493 -0.010628699 -0.08576649 0.0979386 -0.13129456 -0.027120467 0.003598295 0.03537862 -0.035061717 -0.016047433 -0.027791325 0.0029041765 0.06647531 -0.028393611 0.0070915427 -0.09091265 0.012941277 0.08285449 -0.04244381 -0.016911155 -0.032135542 0.13060229
